digraph Tree {
node [shape=box, style="filled, rounded", color="black", fontname=helvetica] ;
edge [fontname=helvetica] ;
0 [label="X[106] <= 0.5\ngini = 0.381\nsamples = 7479\nvalue = [5561, 1918]", fillcolor="#eeac7d"] ;
1 [label="X[6] <= -0.135\ngini = 0.302\nsamples = 6594\nvalue = [5371, 1223]", fillcolor="#eb9e66"] ;
0 -> 1 [labeldistance=2.5, labelangle=45, headlabel="True"] ;
2 [label="X[14] <= -0.135\ngini = 0.228\nsamples = 5920\nvalue = [5144, 776]", fillcolor="#e99457"] ;
1 -> 2 ;
3 [label="X[5] <= 0.737\ngini = 0.183\nsamples = 5671\nvalue = [5092, 579]", fillcolor="#e88f50"] ;
2 -> 3 ;
4 [label="X[12] <= 0.575\ngini = 0.154\nsamples = 5472\nvalue = [5011, 461]", fillcolor="#e78d4b"] ;
3 -> 4 ;
5 [label="X[17] <= 0.5\ngini = 0.134\nsamples = 5381\nvalue = [4992, 389]", fillcolor="#e78b48"] ;
4 -> 5 ;
6 [label="X[68] <= 0.5\ngini = 0.079\nsamples = 4515\nvalue = [4328, 187]", fillcolor="#e68642"] ;
5 -> 6 ;
7 [label="X[0] <= 3.038\ngini = 0.068\nsamples = 4481\nvalue = [4324, 157]", fillcolor="#e68640"] ;
6 -> 7 ;
8 [label="X[49] <= 0.5\ngini = 0.059\nsamples = 4459\nvalue = [4323, 136]", fillcolor="#e6853f"] ;
7 -> 8 ;
9 [label="X[8] <= 3.005\ngini = 0.054\nsamples = 4447\nvalue = [4323, 124]", fillcolor="#e6853f"] ;
8 -> 9 ;
10 [label="gini = 0.048\nsamples = 4424\nvalue = [4315, 109]", fillcolor="#e6843e"] ;
9 -> 10 ;
11 [label="gini = 0.454\nsamples = 23\nvalue = [8, 15]", fillcolor="#a3d1f3"] ;
9 -> 11 ;
12 [label="gini = 0.0\nsamples = 12\nvalue = [0, 12]", fillcolor="#399de5"] ;
8 -> 12 ;
13 [label="X[15] <= 0.203\ngini = 0.087\nsamples = 22\nvalue = [1, 21]", fillcolor="#42a2e6"] ;
7 -> 13 ;
14 [label="gini = 0.0\nsamples = 21\nvalue = [0, 21]", fillcolor="#399de5"] ;
13 -> 14 ;
15 [label="gini = 0.0\nsamples = 1\nvalue = [1, 0]", fillcolor="#e58139"] ;
13 -> 15 ;
16 [label="X[14] <= -0.248\ngini = 0.208\nsamples = 34\nvalue = [4, 30]", fillcolor="#53aae8"] ;
6 -> 16 ;
17 [label="X[1] <= -0.351\ngini = 0.064\nsamples = 30\nvalue = [1, 29]", fillcolor="#40a0e6"] ;
16 -> 17 ;
18 [label="X[13] <= -0.067\ngini = 0.5\nsamples = 2\nvalue = [1, 1]", fillcolor="#ffffff"] ;
17 -> 18 ;
19 [label="gini = 0.0\nsamples = 1\nvalue = [1, 0]", fillcolor="#e58139"] ;
18 -> 19 ;
20 [label="gini = 0.0\nsamples = 1\nvalue = [0, 1]", fillcolor="#399de5"] ;
18 -> 20 ;
21 [label="gini = 0.0\nsamples = 28\nvalue = [0, 28]", fillcolor="#399de5"] ;
17 -> 21 ;
22 [label="X[1] <= -0.095\ngini = 0.375\nsamples = 4\nvalue = [3, 1]", fillcolor="#eeab7b"] ;
16 -> 22 ;
23 [label="gini = 0.0\nsamples = 1\nvalue = [0, 1]", fillcolor="#399de5"] ;
22 -> 23 ;
24 [label="gini = 0.0\nsamples = 3\nvalue = [3, 0]", fillcolor="#e58139"] ;
22 -> 24 ;
25 [label="X[3] <= -0.417\ngini = 0.358\nsamples = 866\nvalue = [664, 202]", fillcolor="#eda775"] ;
5 -> 25 ;
26 [label="X[1] <= 0.166\ngini = 0.487\nsamples = 181\nvalue = [76, 105]", fillcolor="#c8e4f8"] ;
25 -> 26 ;
27 [label="X[4] <= -0.183\ngini = 0.421\nsamples = 143\nvalue = [43, 100]", fillcolor="#8ec7f0"] ;
26 -> 27 ;
28 [label="X[14] <= -0.235\ngini = 0.333\nsamples = 123\nvalue = [26, 97]", fillcolor="#6eb7ec"] ;
27 -> 28 ;
29 [label="gini = 0.303\nsamples = 118\nvalue = [22, 96]", fillcolor="#66b3eb"] ;
28 -> 29 ;
30 [label="gini = 0.32\nsamples = 5\nvalue = [4, 1]", fillcolor="#eca06a"] ;
28 -> 30 ;
31 [label="X[10] <= -0.696\ngini = 0.255\nsamples = 20\nvalue = [17, 3]", fillcolor="#ea975c"] ;
27 -> 31 ;
32 [label="gini = 0.0\nsamples = 2\nvalue = [0, 2]", fillcolor="#399de5"] ;
31 -> 32 ;
33 [label="gini = 0.105\nsamples = 18\nvalue = [17, 1]", fillcolor="#e78845"] ;
31 -> 33 ;
34 [label="X[99] <= 0.5\ngini = 0.229\nsamples = 38\nvalue = [33, 5]", fillcolor="#e99457"] ;
26 -> 34 ;
35 [label="X[88] <= 0.5\ngini = 0.111\nsamples = 34\nvalue = [32, 2]", fillcolor="#e78945"] ;
34 -> 35 ;
36 [label="gini = 0.059\nsamples = 33\nvalue = [32, 1]", fillcolor="#e6853f"] ;
35 -> 36 ;
37 [label="gini = 0.0\nsamples = 1\nvalue = [0, 1]", fillcolor="#399de5"] ;
35 -> 37 ;
38 [label="X[16] <= 0.234\ngini = 0.375\nsamples = 4\nvalue = [1, 3]", fillcolor="#7bbeee"] ;
34 -> 38 ;
39 [label="gini = 0.0\nsamples = 3\nvalue = [0, 3]", fillcolor="#399de5"] ;
38 -> 39 ;
40 [label="gini = 0.0\nsamples = 1\nvalue = [1, 0]", fillcolor="#e58139"] ;
38 -> 40 ;
41 [label="X[4] <= -0.239\ngini = 0.243\nsamples = 685\nvalue = [588, 97]", fillcolor="#e9965a"] ;
25 -> 41 ;
42 [label="X[10] <= -0.2\ngini = 0.383\nsamples = 376\nvalue = [279, 97]", fillcolor="#eead7e"] ;
41 -> 42 ;
43 [label="X[12] <= -0.151\ngini = 0.467\nsamples = 62\nvalue = [23, 39]", fillcolor="#aed7f4"] ;
42 -> 43 ;
44 [label="gini = 0.48\nsamples = 35\nvalue = [21, 14]", fillcolor="#f6d5bd"] ;
43 -> 44 ;
45 [label="gini = 0.137\nsamples = 27\nvalue = [2, 25]", fillcolor="#49a5e7"] ;
43 -> 45 ;
46 [label="X[12] <= -0.066\ngini = 0.301\nsamples = 314\nvalue = [256, 58]", fillcolor="#eb9e66"] ;
42 -> 46 ;
47 [label="gini = 0.212\nsamples = 241\nvalue = [212, 29]", fillcolor="#e99254"] ;
46 -> 47 ;
48 [label="gini = 0.479\nsamples = 73\nvalue = [44, 29]", fillcolor="#f6d4bc"] ;
46 -> 48 ;
49 [label="gini = 0.0\nsamples = 309\nvalue = [309, 0]", fillcolor="#e58139"] ;
41 -> 49 ;
50 [label="X[15] <= -0.034\ngini = 0.33\nsamples = 91\nvalue = [19, 72]", fillcolor="#6db7ec"] ;
4 -> 50 ;
51 [label="X[83] <= 0.5\ngini = 0.206\nsamples = 77\nvalue = [9, 68]", fillcolor="#53aae8"] ;
50 -> 51 ;
52 [label="X[0] <= 6.184\ngini = 0.149\nsamples = 74\nvalue = [6, 68]", fillcolor="#4aa6e7"] ;
51 -> 52 ;
53 [label="X[11] <= 2.881\ngini = 0.106\nsamples = 71\nvalue = [4, 67]", fillcolor="#45a3e7"] ;
52 -> 53 ;
54 [label="X[41] <= 0.5\ngini = 0.031\nsamples = 64\nvalue = [1, 63]", fillcolor="#3c9fe5"] ;
53 -> 54 ;
55 [label="gini = 0.0\nsamples = 63\nvalue = [0, 63]", fillcolor="#399de5"] ;
54 -> 55 ;
56 [label="gini = 0.0\nsamples = 1\nvalue = [1, 0]", fillcolor="#e58139"] ;
54 -> 56 ;
57 [label="X[10] <= 6.03\ngini = 0.49\nsamples = 7\nvalue = [3, 4]", fillcolor="#cee6f8"] ;
53 -> 57 ;
58 [label="gini = 0.375\nsamples = 4\nvalue = [3, 1]", fillcolor="#eeab7b"] ;
57 -> 58 ;
59 [label="gini = 0.0\nsamples = 3\nvalue = [0, 3]", fillcolor="#399de5"] ;
57 -> 59 ;
60 [label="X[10] <= 3.997\ngini = 0.444\nsamples = 3\nvalue = [2, 1]", fillcolor="#f2c09c"] ;
52 -> 60 ;
61 [label="gini = 0.0\nsamples = 2\nvalue = [2, 0]", fillcolor="#e58139"] ;
60 -> 61 ;
62 [label="gini = 0.0\nsamples = 1\nvalue = [0, 1]", fillcolor="#399de5"] ;
60 -> 62 ;
63 [label="gini = 0.0\nsamples = 3\nvalue = [3, 0]", fillcolor="#e58139"] ;
51 -> 63 ;
64 [label="X[11] <= 1.582\ngini = 0.408\nsamples = 14\nvalue = [10, 4]", fillcolor="#efb388"] ;
50 -> 64 ;
65 [label="gini = 0.0\nsamples = 4\nvalue = [0, 4]", fillcolor="#399de5"] ;
64 -> 65 ;
66 [label="gini = 0.0\nsamples = 10\nvalue = [10, 0]", fillcolor="#e58139"] ;
64 -> 66 ;
67 [label="X[4] <= 0.042\ngini = 0.483\nsamples = 199\nvalue = [81, 118]", fillcolor="#c1e0f7"] ;
3 -> 67 ;
68 [label="X[12] <= -0.121\ngini = 0.4\nsamples = 163\nvalue = [45, 118]", fillcolor="#85c2ef"] ;
67 -> 68 ;
69 [label="X[2] <= 0.243\ngini = 0.5\nsamples = 61\nvalue = [31, 30]", fillcolor="#fefbf9"] ;
68 -> 69 ;
70 [label="X[51] <= 0.5\ngini = 0.439\nsamples = 40\nvalue = [27, 13]", fillcolor="#f2be98"] ;
69 -> 70 ;
71 [label="X[28] <= 0.5\ngini = 0.394\nsamples = 37\nvalue = [27, 10]", fillcolor="#efb082"] ;
70 -> 71 ;
72 [label="X[1] <= 13.507\ngini = 0.353\nsamples = 35\nvalue = [27, 8]", fillcolor="#eda674"] ;
71 -> 72 ;
73 [label="gini = 0.298\nsamples = 33\nvalue = [27, 6]", fillcolor="#eb9d65"] ;
72 -> 73 ;
74 [label="gini = 0.0\nsamples = 2\nvalue = [0, 2]", fillcolor="#399de5"] ;
72 -> 74 ;
75 [label="gini = 0.0\nsamples = 2\nvalue = [0, 2]", fillcolor="#399de5"] ;
71 -> 75 ;
76 [label="gini = 0.0\nsamples = 3\nvalue = [0, 3]", fillcolor="#399de5"] ;
70 -> 76 ;
77 [label="X[11] <= -0.254\ngini = 0.308\nsamples = 21\nvalue = [4, 17]", fillcolor="#68b4eb"] ;
69 -> 77 ;
78 [label="X[0] <= -0.196\ngini = 0.375\nsamples = 4\nvalue = [3, 1]", fillcolor="#eeab7b"] ;
77 -> 78 ;
79 [label="gini = 0.0\nsamples = 1\nvalue = [0, 1]", fillcolor="#399de5"] ;
78 -> 79 ;
80 [label="gini = 0.0\nsamples = 3\nvalue = [3, 0]", fillcolor="#e58139"] ;
78 -> 80 ;
81 [label="X[3] <= 3.835\ngini = 0.111\nsamples = 17\nvalue = [1, 16]", fillcolor="#45a3e7"] ;
77 -> 81 ;
82 [label="gini = 0.0\nsamples = 16\nvalue = [0, 16]", fillcolor="#399de5"] ;
81 -> 82 ;
83 [label="gini = 0.0\nsamples = 1\nvalue = [1, 0]", fillcolor="#e58139"] ;
81 -> 83 ;
84 [label="X[107] <= 0.5\ngini = 0.237\nsamples = 102\nvalue = [14, 88]", fillcolor="#58ade9"] ;
68 -> 84 ;
85 [label="X[1] <= 0.361\ngini = 0.458\nsamples = 31\nvalue = [11, 20]", fillcolor="#a6d3f3"] ;
84 -> 85 ;
86 [label="X[3] <= 0.823\ngini = 0.117\nsamples = 16\nvalue = [1, 15]", fillcolor="#46a4e7"] ;
85 -> 86 ;
87 [label="gini = 0.0\nsamples = 15\nvalue = [0, 15]", fillcolor="#399de5"] ;
86 -> 87 ;
88 [label="gini = 0.0\nsamples = 1\nvalue = [1, 0]", fillcolor="#e58139"] ;
86 -> 88 ;
89 [label="X[2] <= 0.243\ngini = 0.444\nsamples = 15\nvalue = [10, 5]", fillcolor="#f2c09c"] ;
85 -> 89 ;
90 [label="X[103] <= 0.5\ngini = 0.278\nsamples = 12\nvalue = [10, 2]", fillcolor="#ea9a61"] ;
89 -> 90 ;
91 [label="gini = 0.165\nsamples = 11\nvalue = [10, 1]", fillcolor="#e88e4d"] ;
90 -> 91 ;
92 [label="gini = 0.0\nsamples = 1\nvalue = [0, 1]", fillcolor="#399de5"] ;
90 -> 92 ;
93 [label="gini = 0.0\nsamples = 3\nvalue = [0, 3]", fillcolor="#399de5"] ;
89 -> 93 ;
94 [label="X[11] <= 1.497\ngini = 0.081\nsamples = 71\nvalue = [3, 68]", fillcolor="#42a1e6"] ;
84 -> 94 ;
95 [label="gini = 0.0\nsamples = 58\nvalue = [0, 58]", fillcolor="#399de5"] ;
94 -> 95 ;
96 [label="X[11] <= 1.638\ngini = 0.355\nsamples = 13\nvalue = [3, 10]", fillcolor="#74baed"] ;
94 -> 96 ;
97 [label="gini = 0.0\nsamples = 3\nvalue = [3, 0]", fillcolor="#e58139"] ;
96 -> 97 ;
98 [label="gini = 0.0\nsamples = 10\nvalue = [0, 10]", fillcolor="#399de5"] ;
96 -> 98 ;
99 [label="gini = 0.0\nsamples = 36\nvalue = [36, 0]", fillcolor="#e58139"] ;
67 -> 99 ;
100 [label="X[14] <= 2.485\ngini = 0.33\nsamples = 249\nvalue = [52, 197]", fillcolor="#6db7ec"] ;
2 -> 100 ;
101 [label="X[3] <= 0.292\ngini = 0.235\nsamples = 221\nvalue = [30, 191]", fillcolor="#58ace9"] ;
100 -> 101 ;
102 [label="X[1] <= 3.04\ngini = 0.133\nsamples = 182\nvalue = [13, 169]", fillcolor="#48a5e7"] ;
101 -> 102 ;
103 [label="X[17] <= 0.5\ngini = 0.107\nsamples = 177\nvalue = [10, 167]", fillcolor="#45a3e7"] ;
102 -> 103 ;
104 [label="X[12] <= -0.228\ngini = 0.017\nsamples = 120\nvalue = [1, 119]", fillcolor="#3b9ee5"] ;
103 -> 104 ;
105 [label="gini = 0.0\nsamples = 1\nvalue = [1, 0]", fillcolor="#e58139"] ;
104 -> 105 ;
106 [label="gini = 0.0\nsamples = 119\nvalue = [0, 119]", fillcolor="#399de5"] ;
104 -> 106 ;
107 [label="X[13] <= -0.061\ngini = 0.266\nsamples = 57\nvalue = [9, 48]", fillcolor="#5eafea"] ;
103 -> 107 ;
108 [label="X[7] <= -1.395\ngini = 0.136\nsamples = 41\nvalue = [3, 38]", fillcolor="#49a5e7"] ;
107 -> 108 ;
109 [label="X[10] <= -0.155\ngini = 0.5\nsamples = 4\nvalue = [2, 2]", fillcolor="#ffffff"] ;
108 -> 109 ;
110 [label="gini = 0.0\nsamples = 2\nvalue = [0, 2]", fillcolor="#399de5"] ;
109 -> 110 ;
111 [label="gini = 0.0\nsamples = 2\nvalue = [2, 0]", fillcolor="#e58139"] ;
109 -> 111 ;
112 [label="X[9] <= 0.875\ngini = 0.053\nsamples = 37\nvalue = [1, 36]", fillcolor="#3ea0e6"] ;
108 -> 112 ;
113 [label="gini = 0.0\nsamples = 34\nvalue = [0, 34]", fillcolor="#399de5"] ;
112 -> 113 ;
114 [label="gini = 0.444\nsamples = 3\nvalue = [1, 2]", fillcolor="#9ccef2"] ;
112 -> 114 ;
115 [label="X[15] <= 0.292\ngini = 0.469\nsamples = 16\nvalue = [6, 10]", fillcolor="#b0d8f5"] ;
107 -> 115 ;
116 [label="X[15] <= -0.257\ngini = 0.355\nsamples = 13\nvalue = [3, 10]", fillcolor="#74baed"] ;
115 -> 116 ;
117 [label="gini = 0.48\nsamples = 5\nvalue = [3, 2]", fillcolor="#f6d5bd"] ;
116 -> 117 ;
118 [label="gini = 0.0\nsamples = 8\nvalue = [0, 8]", fillcolor="#399de5"] ;
116 -> 118 ;
119 [label="gini = 0.0\nsamples = 3\nvalue = [3, 0]", fillcolor="#e58139"] ;
115 -> 119 ;
120 [label="X[5] <= 3.776\ngini = 0.48\nsamples = 5\nvalue = [3, 2]", fillcolor="#f6d5bd"] ;
102 -> 120 ;
121 [label="gini = 0.0\nsamples = 3\nvalue = [3, 0]", fillcolor="#e58139"] ;
120 -> 121 ;
122 [label="gini = 0.0\nsamples = 2\nvalue = [0, 2]", fillcolor="#399de5"] ;
120 -> 122 ;
123 [label="X[7] <= 0.32\ngini = 0.492\nsamples = 39\nvalue = [17, 22]", fillcolor="#d2e9f9"] ;
101 -> 123 ;
124 [label="X[14] <= -0.106\ngini = 0.219\nsamples = 16\nvalue = [2, 14]", fillcolor="#55abe9"] ;
123 -> 124 ;
125 [label="gini = 0.0\nsamples = 1\nvalue = [1, 0]", fillcolor="#e58139"] ;
124 -> 125 ;
126 [label="X[4] <= -0.239\ngini = 0.124\nsamples = 15\nvalue = [1, 14]", fillcolor="#47a4e7"] ;
124 -> 126 ;
127 [label="gini = 0.0\nsamples = 14\nvalue = [0, 14]", fillcolor="#399de5"] ;
126 -> 127 ;
128 [label="gini = 0.0\nsamples = 1\nvalue = [1, 0]", fillcolor="#e58139"] ;
126 -> 128 ;
129 [label="X[0] <= -0.108\ngini = 0.454\nsamples = 23\nvalue = [15, 8]", fillcolor="#f3c4a3"] ;
123 -> 129 ;
130 [label="X[0] <= -0.283\ngini = 0.463\nsamples = 11\nvalue = [4, 7]", fillcolor="#aad5f4"] ;
129 -> 130 ;
131 [label="X[80] <= 0.5\ngini = 0.32\nsamples = 5\nvalue = [4, 1]", fillcolor="#eca06a"] ;
130 -> 131 ;
132 [label="gini = 0.0\nsamples = 1\nvalue = [0, 1]", fillcolor="#399de5"] ;
131 -> 132 ;
133 [label="gini = 0.0\nsamples = 4\nvalue = [4, 0]", fillcolor="#e58139"] ;
131 -> 133 ;
134 [label="gini = 0.0\nsamples = 6\nvalue = [0, 6]", fillcolor="#399de5"] ;
130 -> 134 ;
135 [label="X[36] <= 0.5\ngini = 0.153\nsamples = 12\nvalue = [11, 1]", fillcolor="#e78c4b"] ;
129 -> 135 ;
136 [label="gini = 0.0\nsamples = 11\nvalue = [11, 0]", fillcolor="#e58139"] ;
135 -> 136 ;
137 [label="gini = 0.0\nsamples = 1\nvalue = [0, 1]", fillcolor="#399de5"] ;
135 -> 137 ;
138 [label="X[1] <= -0.052\ngini = 0.337\nsamples = 28\nvalue = [22, 6]", fillcolor="#eca36f"] ;
100 -> 138 ;
139 [label="gini = 0.0\nsamples = 2\nvalue = [0, 2]", fillcolor="#399de5"] ;
138 -> 139 ;
140 [label="X[0] <= 0.591\ngini = 0.26\nsamples = 26\nvalue = [22, 4]", fillcolor="#ea985d"] ;
138 -> 140 ;
141 [label="X[5] <= 3.537\ngini = 0.153\nsamples = 24\nvalue = [22, 2]", fillcolor="#e78c4b"] ;
140 -> 141 ;
142 [label="gini = 0.0\nsamples = 22\nvalue = [22, 0]", fillcolor="#e58139"] ;
141 -> 142 ;
143 [label="gini = 0.0\nsamples = 2\nvalue = [0, 2]", fillcolor="#399de5"] ;
141 -> 143 ;
144 [label="gini = 0.0\nsamples = 2\nvalue = [0, 2]", fillcolor="#399de5"] ;
140 -> 144 ;
145 [label="X[4] <= -0.239\ngini = 0.447\nsamples = 674\nvalue = [227, 447]", fillcolor="#9ecff2"] ;
1 -> 145 ;
146 [label="X[3] <= 0.292\ngini = 0.299\nsamples = 536\nvalue = [98, 438]", fillcolor="#65b3eb"] ;
145 -> 146 ;
147 [label="X[53] <= 0.5\ngini = 0.183\nsamples = 421\nvalue = [43, 378]", fillcolor="#50a8e8"] ;
146 -> 147 ;
148 [label="X[7] <= -0.93\ngini = 0.151\nsamples = 412\nvalue = [34, 378]", fillcolor="#4ba6e7"] ;
147 -> 148 ;
149 [label="X[101] <= 0.5\ngini = 0.349\nsamples = 80\nvalue = [18, 62]", fillcolor="#72b9ed"] ;
148 -> 149 ;
150 [label="X[74] <= 0.5\ngini = 0.242\nsamples = 71\nvalue = [10, 61]", fillcolor="#59ade9"] ;
149 -> 150 ;
151 [label="X[28] <= 0.5\ngini = 0.185\nsamples = 68\nvalue = [7, 61]", fillcolor="#50a8e8"] ;
150 -> 151 ;
152 [label="X[3] <= -0.062\ngini = 0.116\nsamples = 65\nvalue = [4, 61]", fillcolor="#46a3e7"] ;
151 -> 152 ;
153 [label="gini = 0.033\nsamples = 60\nvalue = [1, 59]", fillcolor="#3c9fe5"] ;
152 -> 153 ;
154 [label="gini = 0.48\nsamples = 5\nvalue = [3, 2]", fillcolor="#f6d5bd"] ;
152 -> 154 ;
155 [label="gini = 0.0\nsamples = 3\nvalue = [3, 0]", fillcolor="#e58139"] ;
151 -> 155 ;
156 [label="gini = 0.0\nsamples = 3\nvalue = [3, 0]", fillcolor="#e58139"] ;
150 -> 156 ;
157 [label="X[3] <= -0.417\ngini = 0.198\nsamples = 9\nvalue = [8, 1]", fillcolor="#e89152"] ;
149 -> 157 ;
158 [label="gini = 0.0\nsamples = 1\nvalue = [0, 1]", fillcolor="#399de5"] ;
157 -> 158 ;
159 [label="gini = 0.0\nsamples = 8\nvalue = [8, 0]", fillcolor="#e58139"] ;
157 -> 159 ;
160 [label="X[98] <= 0.5\ngini = 0.092\nsamples = 332\nvalue = [16, 316]", fillcolor="#43a2e6"] ;
148 -> 160 ;
161 [label="X[12] <= -0.192\ngini = 0.072\nsamples = 322\nvalue = [12, 310]", fillcolor="#41a1e6"] ;
160 -> 161 ;
162 [label="X[10] <= -0.09\ngini = 0.227\nsamples = 69\nvalue = [9, 60]", fillcolor="#57ace9"] ;
161 -> 162 ;
163 [label="X[12] <= -0.194\ngini = 0.146\nsamples = 63\nvalue = [5, 58]", fillcolor="#4aa5e7"] ;
162 -> 163 ;
164 [label="gini = 0.094\nsamples = 61\nvalue = [3, 58]", fillcolor="#43a2e6"] ;
163 -> 164 ;
165 [label="gini = 0.0\nsamples = 2\nvalue = [2, 0]", fillcolor="#e58139"] ;
163 -> 165 ;
166 [label="X[12] <= -0.246\ngini = 0.444\nsamples = 6\nvalue = [4, 2]", fillcolor="#f2c09c"] ;
162 -> 166 ;
167 [label="gini = 0.0\nsamples = 2\nvalue = [0, 2]", fillcolor="#399de5"] ;
166 -> 167 ;
168 [label="gini = 0.0\nsamples = 4\nvalue = [4, 0]", fillcolor="#e58139"] ;
166 -> 168 ;
169 [label="X[1] <= -0.334\ngini = 0.023\nsamples = 253\nvalue = [3, 250]", fillcolor="#3b9ee5"] ;
161 -> 169 ;
170 [label="X[1] <= -0.338\ngini = 0.098\nsamples = 58\nvalue = [3, 55]", fillcolor="#44a2e6"] ;
169 -> 170 ;
171 [label="gini = 0.068\nsamples = 57\nvalue = [2, 55]", fillcolor="#40a1e6"] ;
170 -> 171 ;
172 [label="gini = 0.0\nsamples = 1\nvalue = [1, 0]", fillcolor="#e58139"] ;
170 -> 172 ;
173 [label="gini = 0.0\nsamples = 195\nvalue = [0, 195]", fillcolor="#399de5"] ;
169 -> 173 ;
174 [label="X[11] <= 1.356\ngini = 0.48\nsamples = 10\nvalue = [4, 6]", fillcolor="#bddef6"] ;
160 -> 174 ;
175 [label="gini = 0.0\nsamples = 5\nvalue = [0, 5]", fillcolor="#399de5"] ;
174 -> 175 ;
176 [label="X[3] <= -0.062\ngini = 0.32\nsamples = 5\nvalue = [4, 1]", fillcolor="#eca06a"] ;
174 -> 176 ;
177 [label="gini = 0.0\nsamples = 4\nvalue = [4, 0]", fillcolor="#e58139"] ;
176 -> 177 ;
178 [label="gini = 0.0\nsamples = 1\nvalue = [0, 1]", fillcolor="#399de5"] ;
176 -> 178 ;
179 [label="gini = 0.0\nsamples = 9\nvalue = [9, 0]", fillcolor="#e58139"] ;
147 -> 179 ;
180 [label="X[80] <= 0.5\ngini = 0.499\nsamples = 115\nvalue = [55, 60]", fillcolor="#eff7fd"] ;
146 -> 180 ;
181 [label="X[10] <= -0.331\ngini = 0.397\nsamples = 44\nvalue = [32, 12]", fillcolor="#efb083"] ;
180 -> 181 ;
182 [label="gini = 0.0\nsamples = 8\nvalue = [0, 8]", fillcolor="#399de5"] ;
181 -> 182 ;
183 [label="X[12] <= -0.054\ngini = 0.198\nsamples = 36\nvalue = [32, 4]", fillcolor="#e89152"] ;
181 -> 183 ;
184 [label="X[7] <= 3.345\ngini = 0.111\nsamples = 34\nvalue = [32, 2]", fillcolor="#e78945"] ;
183 -> 184 ;
185 [label="X[15] <= 0.662\ngini = 0.059\nsamples = 33\nvalue = [32, 1]", fillcolor="#e6853f"] ;
184 -> 185 ;
186 [label="gini = 0.0\nsamples = 30\nvalue = [30, 0]", fillcolor="#e58139"] ;
185 -> 186 ;
187 [label="X[12] <= -0.147\ngini = 0.444\nsamples = 3\nvalue = [2, 1]", fillcolor="#f2c09c"] ;
185 -> 187 ;
188 [label="gini = 0.0\nsamples = 1\nvalue = [0, 1]", fillcolor="#399de5"] ;
187 -> 188 ;
189 [label="gini = 0.0\nsamples = 2\nvalue = [2, 0]", fillcolor="#e58139"] ;
187 -> 189 ;
190 [label="gini = 0.0\nsamples = 1\nvalue = [0, 1]", fillcolor="#399de5"] ;
184 -> 190 ;
191 [label="gini = 0.0\nsamples = 2\nvalue = [0, 2]", fillcolor="#399de5"] ;
183 -> 191 ;
192 [label="X[105] <= 0.5\ngini = 0.438\nsamples = 71\nvalue = [23, 48]", fillcolor="#98ccf1"] ;
180 -> 192 ;
193 [label="X[6] <= 4.611\ngini = 0.375\nsamples = 64\nvalue = [16, 48]", fillcolor="#7bbeee"] ;
192 -> 193 ;
194 [label="X[12] <= -0.191\ngini = 0.335\nsamples = 61\nvalue = [13, 48]", fillcolor="#6fb8ec"] ;
193 -> 194 ;
195 [label="X[11] <= -0.593\ngini = 0.5\nsamples = 14\nvalue = [7, 7]", fillcolor="#ffffff"] ;
194 -> 195 ;
196 [label="gini = 0.0\nsamples = 4\nvalue = [0, 4]", fillcolor="#399de5"] ;
195 -> 196 ;
197 [label="X[7] <= 0.001\ngini = 0.42\nsamples = 10\nvalue = [7, 3]", fillcolor="#f0b78e"] ;
195 -> 197 ;
198 [label="gini = 0.48\nsamples = 5\nvalue = [2, 3]", fillcolor="#bddef6"] ;
197 -> 198 ;
199 [label="gini = 0.0\nsamples = 5\nvalue = [5, 0]", fillcolor="#e58139"] ;
197 -> 199 ;
200 [label="X[11] <= 2.796\ngini = 0.223\nsamples = 47\nvalue = [6, 41]", fillcolor="#56abe9"] ;
194 -> 200 ;
201 [label="X[18] <= 0.5\ngini = 0.162\nsamples = 45\nvalue = [4, 41]", fillcolor="#4ca7e8"] ;
200 -> 201 ;
202 [label="gini = 0.127\nsamples = 44\nvalue = [3, 41]", fillcolor="#47a4e7"] ;
201 -> 202 ;
203 [label="gini = 0.0\nsamples = 1\nvalue = [1, 0]", fillcolor="#e58139"] ;
201 -> 203 ;
204 [label="gini = 0.0\nsamples = 2\nvalue = [2, 0]", fillcolor="#e58139"] ;
200 -> 204 ;
205 [label="gini = 0.0\nsamples = 3\nvalue = [3, 0]", fillcolor="#e58139"] ;
193 -> 205 ;
206 [label="gini = 0.0\nsamples = 7\nvalue = [7, 0]", fillcolor="#e58139"] ;
192 -> 206 ;
207 [label="X[1] <= 0.131\ngini = 0.122\nsamples = 138\nvalue = [129, 9]", fillcolor="#e78a47"] ;
145 -> 207 ;
208 [label="gini = 0.0\nsamples = 124\nvalue = [124, 0]", fillcolor="#e58139"] ;
207 -> 208 ;
209 [label="X[15] <= 0.01\ngini = 0.459\nsamples = 14\nvalue = [5, 9]", fillcolor="#a7d3f3"] ;
207 -> 209 ;
210 [label="gini = 0.0\nsamples = 7\nvalue = [0, 7]", fillcolor="#399de5"] ;
209 -> 210 ;
211 [label="X[15] <= 2.011\ngini = 0.408\nsamples = 7\nvalue = [5, 2]", fillcolor="#efb388"] ;
209 -> 211 ;
212 [label="gini = 0.0\nsamples = 5\nvalue = [5, 0]", fillcolor="#e58139"] ;
211 -> 212 ;
213 [label="gini = 0.0\nsamples = 2\nvalue = [0, 2]", fillcolor="#399de5"] ;
211 -> 213 ;
214 [label="X[53] <= 0.5\ngini = 0.337\nsamples = 885\nvalue = [190, 695]", fillcolor="#6fb8ec"] ;
0 -> 214 [labeldistance=2.5, labelangle=-45, headlabel="False"] ;
215 [label="X[47] <= 0.5\ngini = 0.13\nsamples = 747\nvalue = [52, 695]", fillcolor="#48a4e7"] ;
214 -> 215 ;
216 [label="X[6] <= 5.995\ngini = 0.028\nsamples = 705\nvalue = [10, 695]", fillcolor="#3c9ee5"] ;
215 -> 216 ;
217 [label="X[3] <= 0.646\ngini = 0.011\nsamples = 699\nvalue = [4, 695]", fillcolor="#3a9ee5"] ;
216 -> 217 ;
218 [label="X[1] <= 1.029\ngini = 0.003\nsamples = 655\nvalue = [1, 654]", fillcolor="#399de5"] ;
217 -> 218 ;
219 [label="gini = 0.0\nsamples = 623\nvalue = [0, 623]", fillcolor="#399de5"] ;
218 -> 219 ;
220 [label="X[1] <= 1.134\ngini = 0.061\nsamples = 32\nvalue = [1, 31]", fillcolor="#3fa0e6"] ;
218 -> 220 ;
221 [label="gini = 0.0\nsamples = 1\nvalue = [1, 0]", fillcolor="#e58139"] ;
220 -> 221 ;
222 [label="gini = 0.0\nsamples = 31\nvalue = [0, 31]", fillcolor="#399de5"] ;
220 -> 222 ;
223 [label="X[11] <= -0.565\ngini = 0.127\nsamples = 44\nvalue = [3, 41]", fillcolor="#47a4e7"] ;
217 -> 223 ;
224 [label="X[1] <= -0.276\ngini = 0.5\nsamples = 6\nvalue = [3, 3]", fillcolor="#ffffff"] ;
223 -> 224 ;
225 [label="gini = 0.0\nsamples = 3\nvalue = [0, 3]", fillcolor="#399de5"] ;
224 -> 225 ;
226 [label="gini = 0.0\nsamples = 3\nvalue = [3, 0]", fillcolor="#e58139"] ;
224 -> 226 ;
227 [label="gini = 0.0\nsamples = 38\nvalue = [0, 38]", fillcolor="#399de5"] ;
223 -> 227 ;
228 [label="gini = 0.0\nsamples = 6\nvalue = [6, 0]", fillcolor="#e58139"] ;
216 -> 228 ;
229 [label="gini = 0.0\nsamples = 42\nvalue = [42, 0]", fillcolor="#e58139"] ;
215 -> 229 ;
230 [label="gini = 0.0\nsamples = 138\nvalue = [138, 0]", fillcolor="#e58139"] ;
214 -> 230 ;
}